<?xml version="1.0"?>
<opencv_storage>
<stage10>
  <maxWeakCount>9</maxWeakCount>
  <stageThreshold>-1.0508040189743042e+00</stageThreshold>
  <weakClassifiers>
    <_>
      <internalNodes>
        0 -1 49151 1.2959183659404516e-03</internalNodes>
      <leafValues>
        -6.8817204236984253e-01 4.9656358361244202e-01</leafValues></_>
    <_>
      <internalNodes>
        0 -1 74967 -1.0040185879915953e-03</internalNodes>
      <leafValues>
        4.2767891287803650e-01 -4.4661858677864075e-01</leafValues></_>
    <_>
      <internalNodes>
        0 -1 67083 -3.7567478138953447e-03</internalNodes>
      <leafValues>
        4.4260615110397339e-01 -3.8364377617835999e-01</leafValues></_>
    <_>
      <internalNodes>
        0 -1 73078 1.5253161545842886e-03</internalNodes>
      <leafValues>
        2.2624363005161285e-01 -7.8549426794052124e-01</leafValues></_>
    <_>
      <internalNodes>
        0 -1 42847 -4.7523202374577522e-03</internalNodes>
      <leafValues>
        2.1488121151924133e-01 -6.4827370643615723e-01</leafValues></_>
    <_>
      <internalNodes>
        0 -1 73153 -6.3511554617434740e-04</internalNodes>
      <leafValues>
        1.8948772549629211e-01 -7.2821646928787231e-01</leafValues></_>
    <_>
      <internalNodes>
        0 -1 70851 -1.3718303292989731e-02</internalNodes>
      <leafValues>
        -7.8188729286193848e-01 1.6294406354427338e-01</leafValues></_>
    <_>
      <internalNodes>
        0 -1 32636 -2.0811874128412455e-04</internalNodes>
      <leafValues>
        -7.3351269960403442e-01 1.6131633520126343e-01</leafValues></_>
    <_>
      <internalNodes>
        0 -1 56045 2.1361215040087700e-03</internalNodes>
      <leafValues>
        1.0888093709945679e-01 -9.6536350250244141e-01</leafValues></_></weakClassifiers></stage10>
</opencv_storage>
