<?xml version="1.0"?>
<opencv_storage>
<stage9>
  <maxWeakCount>9</maxWeakCount>
  <stageThreshold>-1.0001564025878906e+00</stageThreshold>
  <weakClassifiers>
    <_>
      <internalNodes>
        0 -1 31779 -2.7551390230655670e-02</internalNodes>
      <leafValues>
        -8.4246575832366943e-01 4.7591361403465271e-01</leafValues></_>
    <_>
      <internalNodes>
        0 -1 62262 -1.0529072023928165e-03</internalNodes>
      <leafValues>
        4.6014520525932312e-01 -3.8120770454406738e-01</leafValues></_>
    <_>
      <internalNodes>
        0 -1 59652 8.3109037950634956e-04</internalNodes>
      <leafValues>
        -6.4024043083190918e-01 2.9060813784599304e-01</leafValues></_>
    <_>
      <internalNodes>
        0 -1 44113 -3.6115590482950211e-03</internalNodes>
      <leafValues>
        2.4084548652172089e-01 -6.3157284259796143e-01</leafValues></_>
    <_>
      <internalNodes>
        0 -1 42481 -2.8384543955326080e-02</internalNodes>
      <leafValues>
        -9.4031476974487305e-01 1.5504945814609528e-01</leafValues></_>
    <_>
      <internalNodes>
        0 -1 51455 1.9890934228897095e-02</internalNodes>
      <leafValues>
        1.7565000057220459e-01 -7.6714837551116943e-01</leafValues></_>
    <_>
      <internalNodes>
        0 -1 37645 4.4718015938997269e-02</internalNodes>
      <leafValues>
        1.4440171420574188e-01 -8.6234194040298462e-01</leafValues></_>
    <_>
      <internalNodes>
        0 -1 64764 1.4696775469928980e-03</internalNodes>
      <leafValues>
        -4.2619636654853821e-01 3.7202665209770203e-01</leafValues></_>
    <_>
      <internalNodes>
        0 -1 48795 -7.9968068748712540e-03</internalNodes>
      <leafValues>
        -8.0280232429504395e-01 1.8339113891124725e-01</leafValues></_></weakClassifiers></stage9>
</opencv_storage>
