<?xml version="1.0"?>
<opencv_storage>
<stage1>
  <maxWeakCount>5</maxWeakCount>
  <stageThreshold>-1.1326019763946533e+00</stageThreshold>
  <weakClassifiers>
    <_>
      <internalNodes>
        0 -1 55780 1.2384031433612108e-03</internalNodes>
      <leafValues>
        -6.9548386335372925e-01 7.4753248691558838e-01</leafValues></_>
    <_>
      <internalNodes>
        0 -1 26411 1.3433277606964111e-02</internalNodes>
      <leafValues>
        -6.5324777364730835e-01 5.9876477718353271e-01</leafValues></_>
    <_>
      <internalNodes>
        0 -1 70851 -2.1105250343680382e-03</internalNodes>
      <leafValues>
        3.9046797156333923e-01 -7.8270572423934937e-01</leafValues></_>
    <_>
      <internalNodes>
        0 -1 24656 4.2518928647041321e-02</internalNodes>
      <leafValues>
        -4.7163954377174377e-01 6.1034667491912842e-01</leafValues></_>
    <_>
      <internalNodes>
        0 -1 48623 -5.6018400937318802e-03</internalNodes>
      <leafValues>
        -9.5242154598236084e-01 2.9730117321014404e-01</leafValues></_></weakClassifiers></stage1>
</opencv_storage>
