<?xml version="1.0"?>
<opencv_storage>
<stage4>
  <maxWeakCount>8</maxWeakCount>
  <stageThreshold>-9.5372474193572998e-01</stageThreshold>
  <weakClassifiers>
    <_>
      <internalNodes>
        0 -1 60850 -2.3462931858375669e-04</internalNodes>
      <leafValues>
        -6.4393937587738037e-01 5.7090240716934204e-01</leafValues></_>
    <_>
      <internalNodes>
        0 -1 30775 3.5149240866303444e-03</internalNodes>
      <leafValues>
        -4.7774779796600342e-01 5.8354133367538452e-01</leafValues></_>
    <_>
      <internalNodes>
        0 -1 69792 -6.7593943094834685e-04</internalNodes>
      <leafValues>
        4.5058056712150574e-01 -5.2375143766403198e-01</leafValues></_>
    <_>
      <internalNodes>
        0 -1 49725 4.5802821405231953e-03</internalNodes>
      <leafValues>
        -4.2822727560997009e-01 5.3026694059371948e-01</leafValues></_>
    <_>
      <internalNodes>
        0 -1 72971 -2.8893857961520553e-04</internalNodes>
      <leafValues>
        -7.7696263790130615e-01 3.0830210447311401e-01</leafValues></_>
    <_>
      <internalNodes>
        0 -1 59965 2.0622289739549160e-03</internalNodes>
      <leafValues>
        -6.4216208457946777e-01 3.0683416128158569e-01</leafValues></_>
    <_>
      <internalNodes>
        0 -1 37324 4.3382808566093445e-02</internalNodes>
      <leafValues>
        2.4147038161754608e-01 -8.7389570474624634e-01</leafValues></_>
    <_>
      <internalNodes>
        0 -1 73258 -1.0237256356049329e-04</internalNodes>
      <leafValues>
        2.6333451271057129e-01 -7.3128545284271240e-01</leafValues></_></weakClassifiers></stage4>
</opencv_storage>
