<?xml version="1.0"?>
<opencv_storage>
<stage5>
  <maxWeakCount>8</maxWeakCount>
  <stageThreshold>-9.6902424097061157e-01</stageThreshold>
  <weakClassifiers>
    <_>
      <internalNodes>
        0 -1 51632 2.5542503863107413e-05</internalNodes>
      <leafValues>
        -6.8359375000000000e-01 5.7129800319671631e-01</leafValues></_>
    <_>
      <internalNodes>
        0 -1 44105 -2.5000944733619690e-03</internalNodes>
      <leafValues>
        3.9660617709159851e-01 -6.7876619100570679e-01</leafValues></_>
    <_>
      <internalNodes>
        0 -1 51632 1.7248544609174132e-03</internalNodes>
      <leafValues>
        3.0339524149894714e-01 -8.8479959964752197e-01</leafValues></_>
    <_>
      <internalNodes>
        0 -1 46782 2.8417579829692841e-02</internalNodes>
      <leafValues>
        -6.3666623830795288e-01 3.0567133426666260e-01</leafValues></_>
    <_>
      <internalNodes>
        0 -1 73058 -1.0475309100002050e-03</internalNodes>
      <leafValues>
        2.7649727463722229e-01 -7.4537384510040283e-01</leafValues></_>
    <_>
      <internalNodes>
        0 -1 50963 4.6637300401926041e-03</internalNodes>
      <leafValues>
        -3.6386984586715698e-01 5.6407451629638672e-01</leafValues></_>
    <_>
      <internalNodes>
        0 -1 49240 1.2815429363399744e-03</internalNodes>
      <leafValues>
        -4.5037645101547241e-01 4.1203287243843079e-01</leafValues></_>
    <_>
      <internalNodes>
        0 -1 53031 2.0826144143939018e-02</internalNodes>
      <leafValues>
        1.8898332118988037e-01 -8.8707691431045532e-01</leafValues></_></weakClassifiers></stage5>
</opencv_storage>
